net 
{
    node_size = (76 36);
}

node Month
{
    label = "Month";
    position = (1721 1005);
    states = ("Jan"  "Feb"  "March");
}

node Depth
{
    label = "Depth";
    position = (139 135);
    states = ("Shallow"  "Medium"  "Deep");
}

node CropType
{
    label = "CropType";
    position = (2274 807);
    states = ("Cereals"  "Grass"  "GrassSilage"  "JRPotatoes"  "NO");
}

node Rainfall
{
    label = "Rainfall";
    position = (1253 997);
    states = ("Low"  "Medium"  "High");
}

node Pesticide
{
    label = "Pesticide";
    position = (1586 590);
    states = ("Glyphosate"  "Metobromuron"  "Pendimethalin" 
     "Prosulfocarb"  "Fluorpyram");
}

node Application
{
    label = "Application";
    position = (1917 810);
    states = ("Yes"  "No");
}

node AR
{
    label = "AR";
    position = (1957 203);
    states = ("None"  "AR1"  "AR2"  "AR3"  "AR4"  "AR5"  "AR6"  "AR7" 
     "AR8"  "AR9"  "AR10"  "AR11");
}

node SHU
{
    label = "SHU";
    position = (305 985);
    states = ("Loess"  "Sand"  "Shale");
}

node Kunsat
{
    label = "Kunsat";
    position = (436 762);
    states = ("Low"  "Medium"  "High");
}

node IR
{
    label = "IR";
    position = (679 512);
    states = ("Very_low"  "Low"  "Medium"  "High"  "Very_high");
}

node OC
{
    label = "OC";
    position = (201 645);
    states = ("Low"  "Medium"  "High");
}

node Koc
{
    label = "Koc";
    position = (993 292);
    states = ("Very_mobile"  "Mobile"  "Moderately_mobile" 
     "Sightly_mobile"  "Non_mobile");
}

node HalfLife
{
    label = "HalfLife";
    position = (1500 315);
    states = ("Non_persistent"  "Moderately_persistent"  "Persistent" 
     "Very_persistent");
}

node RF
{
    label = "RF";
    position = (201 433);
    states = ("Low"  "Medium"  "High");
}

node AF_A
{
    label = "AF_A";
    position = (526 -53);
    states = ("AF1"  "AF2"  "AF3"  "AF4"  "AF5"  "AF6");
}

node Leach
{
    label = "Leach";
    position = (1122 -117);
    states = ("Low"  "Medium"  "High");
}

potential (Month |)
{
    data = (0.33333333 0.33333333 0.33333333);
}

potential (Depth |)
{
    data = (0.68140000 0.31760000 0.00100000);
}

potential (CropType |)
{
    data = (0.01000000 0.13000000 0.12000000 0.64500000 0.09500000);
}

potential (Rainfall | Month)
{
    data = ((0.24070000 0.27450000 0.48480000)
        (0.36040000 0.37650000 0.26310000)
        (0.41650000 0.35980000 0.22370000));
}

potential (Pesticide |)
{
    data = (0.20000000 0.20000000 0.20000000 0.20000000 0.20000000);
}

potential (Application | Month CropType Pesticide)
{
    data = ((((0.00001000 0.99999000)
        (0.00001000 0.99999000)
        (0.99999000 0.00001000)
        (0.99999000 0.00001000)
        (0.00001000 0.99999000))
        ((0.00001000 0.99999000)
        (0.00001000 0.99999000)
        (0.00001000 0.99999000)
        (0.00001000 0.99999000)
        (0.00001000 0.99999000))
        ((0.95000000 0.05000000)
        (0.00001000 0.99999000)
        (0.00001000 0.99999000)
        (0.00001000 0.99999000)
        (0.00001000 0.99999000))
        ((0.95000000 0.05000000)
        (0.00001000 0.99999000)
        (0.00001000 0.99999000)
        (0.00001000 0.99999000)
        (0.00001000 0.99999000))
        ((0.00001000 0.99999000)
        (0.00001000 0.99999000)
        (0.00001000 0.99999000)
        (0.00001000 0.99999000)
        (0.00001000 0.99999000)))
        (((0.00001000 0.99999000)
        (0.00001000 0.99999000)
        (0.90000000 0.10000000)
        (0.00001000 0.99999000)
        (0.00001000 0.99999000))
        ((0.00001000 0.99999000)
        (0.00001000 0.99999000)
        (0.00001000 0.99999000)
        (0.00001000 0.99999000)
        (0.00001000 0.99999000))
        ((0.05000000 0.95000000)
        (0.00001000 0.99999000)
        (0.00001000 0.99999000)
        (0.00001000 0.99999000)
        (0.00001000 0.99999000))
        ((0.05000000 0.95000000)
        (0.90000000 0.10000000)
        (0.90000000 0.10000000)
        (0.90000000 0.10000000)
        (0.90000000 0.10000000))
        ((0.00001000 0.99999000)
        (0.00001000 0.99999000)
        (0.00001000 0.99999000)
        (0.00001000 0.99999000)
        (0.00001000 0.99999000)))
        (((0.00001000 0.99999000)
        (0.00001000 0.99999000)
        (0.10000000 0.90000000)
        (0.00001000 0.99999000)
        (0.00001000 0.99999000))
        ((0.00001000 0.99999000)
        (0.00001000 0.99999000)
        (0.00001000 0.99999000)
        (0.00001000 0.99999000)
        (0.00001000 0.99999000))
        ((0.00001000 0.99999000)
        (0.00001000 0.99999000)
        (0.00001000 0.99999000)
        (0.00001000 0.99999000)
        (0.00001000 0.99999000))
        ((0.00001000 0.99999000)
        (0.10000000 0.90000000)
        (0.10000000 0.90000000)
        (0.10000000 0.90000000)
        (0.10000000 0.90000000))
        ((0.00001000 0.99999000)
        (0.00001000 0.99999000)
        (0.00001000 0.99999000)
        (0.00001000 0.99999000)
        (0.00001000 0.99999000))));
}

potential (AR | Pesticide Application CropType)
{
    data = ((((0.99890121 0.00009989 0.00009989 0.00009989 0.00009989 
        0.00009989 0.00009989 0.00009989 0.00009989 0.00009989 
        0.00009989 0.00009989)
        (0.99890121 0.00009989 0.00009989 0.00009989 0.00009989 
        0.00009989 0.00009989 0.00009989 0.00009989 0.00009989 
        0.00009989 0.00009989)
        (0.00009990 0.00009990 0.00009990 0.00009990 0.00009990 
        0.50189810 0.49710290 0.00009990 0.00009990 0.00009990 
        0.00009990 0.00009990)
        (0.00009990 0.00009990 0.00009990 0.00009990 0.00009990 
        0.50399600 0.49500500 0.00009990 0.00009990 0.00009990 
        0.00009990 0.00009990)
        (0.99890121 0.00009989 0.00009989 0.00009989 0.00009989 
        0.00009989 0.00009989 0.00009989 0.00009989 0.00009989 
        0.00009989 0.00009989))
        ((0.99890121 0.00009989 0.00009989 0.00009989 0.00009989 
        0.00009989 0.00009989 0.00009989 0.00009989 0.00009989 
        0.00009989 0.00009989)
        (0.99890121 0.00009989 0.00009989 0.00009989 0.00009989 
        0.00009989 0.00009989 0.00009989 0.00009989 0.00009989 
        0.00009989 0.00009989)
        (0.99890121 0.00009989 0.00009989 0.00009989 0.00009989 
        0.00009989 0.00009989 0.00009989 0.00009989 0.00009989 
        0.00009989 0.00009989)
        (0.99890121 0.00009989 0.00009989 0.00009989 0.00009989 
        0.00009989 0.00009989 0.00009989 0.00009989 0.00009989 
        0.00009989 0.00009989)
        (0.99890121 0.00009989 0.00009989 0.00009989 0.00009989 
        0.00009989 0.00009989 0.00009989 0.00009989 0.00009989 
        0.00009989 0.00009989)))
        (((0.99890121 0.00009989 0.00009989 0.00009989 0.00009989 
        0.00009989 0.00009989 0.00009989 0.00009989 0.00009989 
        0.00009989 0.00009989)
        (0.99890121 0.00009989 0.00009989 0.00009989 0.00009989 
        0.00009989 0.00009989 0.00009989 0.00009989 0.00009989 
        0.00009989 0.00009989)
        (0.99890121 0.00009989 0.00009989 0.00009989 0.00009989 
        0.00009989 0.00009989 0.00009989 0.00009989 0.00009989 
        0.00009989 0.00009989)
        (0.00009989 0.00009989 0.00009989 0.00009989 0.00009989 
        0.00009989 0.00009989 0.00009989 0.99890121 0.00009989 
        0.00009989 0.00009989)
        (0.99890121 0.00009989 0.00009989 0.00009989 0.00009989 
        0.00009989 0.00009989 0.00009989 0.00009989 0.00009989 
        0.00009989 0.00009989))
        ((0.99890121 0.00009989 0.00009989 0.00009989 0.00009989 
        0.00009989 0.00009989 0.00009989 0.00009989 0.00009989 
        0.00009989 0.00009989)
        (0.99890121 0.00009989 0.00009989 0.00009989 0.00009989 
        0.00009989 0.00009989 0.00009989 0.00009989 0.00009989 
        0.00009989 0.00009989)
        (0.99890121 0.00009989 0.00009989 0.00009989 0.00009989 
        0.00009989 0.00009989 0.00009989 0.00009989 0.00009989 
        0.00009989 0.00009989)
        (0.99890121 0.00009989 0.00009989 0.00009989 0.00009989 
        0.00009989 0.00009989 0.00009989 0.00009989 0.00009989 
        0.00009989 0.00009989)
        (0.99890121 0.00009989 0.00009989 0.00009989 0.00009989 
        0.00009989 0.00009989 0.00009989 0.00009989 0.00009989 
        0.00009989 0.00009989)))
        (((0.00009989 0.00009989 0.00009989 0.00009989 0.00009989 
        0.00009989 0.99890121 0.00009989 0.00009989 0.00009989 
        0.00009989 0.00009989)
        (0.99890121 0.00009989 0.00009989 0.00009989 0.00009989 
        0.00009989 0.00009989 0.00009989 0.00009989 0.00009989 
        0.00009989 0.00009989)
        (0.99890121 0.00009989 0.00009989 0.00009989 0.00009989 
        0.00009989 0.00009989 0.00009989 0.00009989 0.00009989 
        0.00009989 0.00009989)
        (0.00009989 0.00009989 0.00009989 0.00009989 0.00009989 
        0.00009989 0.99890121 0.00009989 0.00009989 0.00009989 
        0.00009989 0.00009989)
        (0.99890121 0.00009989 0.00009989 0.00009989 0.00009989 
        0.00009989 0.00009989 0.00009989 0.00009989 0.00009989 
        0.00009989 0.00009989))
        ((0.99890121 0.00009989 0.00009989 0.00009989 0.00009989 
        0.00009989 0.00009989 0.00009989 0.00009989 0.00009989 
        0.00009989 0.00009989)
        (0.99890121 0.00009989 0.00009989 0.00009989 0.00009989 
        0.00009989 0.00009989 0.00009989 0.00009989 0.00009989 
        0.00009989 0.00009989)
        (0.99890121 0.00009989 0.00009989 0.00009989 0.00009989 
        0.00009989 0.00009989 0.00009989 0.00009989 0.00009989 
        0.00009989 0.00009989)
        (0.99890121 0.00009989 0.00009989 0.00009989 0.00009989 
        0.00009989 0.00009989 0.00009989 0.00009989 0.00009989 
        0.00009989 0.00009989)
        (0.99890121 0.00009989 0.00009989 0.00009989 0.00009989 
        0.00009989 0.00009989 0.00009989 0.00009989 0.00009989 
        0.00009989 0.00009989)))
        (((0.99890121 0.00009989 0.00009989 0.00009989 0.00009989 
        0.00009989 0.00009989 0.00009989 0.00009989 0.00009989 
        0.00009989 0.00009989)
        (0.99890121 0.00009989 0.00009989 0.00009989 0.00009989 
        0.00009989 0.00009989 0.00009989 0.00009989 0.00009989 
        0.00009989 0.00009989)
        (0.99890121 0.00009989 0.00009989 0.00009989 0.00009989 
        0.00009989 0.00009989 0.00009989 0.00009989 0.00009989 
        0.00009989 0.00009989)
        (0.00009989 0.00009989 0.00009989 0.00009989 0.00009989 
        0.00009989 0.00009989 0.00009989 0.00009989 0.00009989 
        0.00009989 0.99890121)
        (0.99890121 0.00009989 0.00009989 0.00009989 0.00009989 
        0.00009989 0.00009989 0.00009989 0.00009989 0.00009989 
        0.00009989 0.00009989))
        ((0.99890121 0.00009989 0.00009989 0.00009989 0.00009989 
        0.00009989 0.00009989 0.00009989 0.00009989 0.00009989 
        0.00009989 0.00009989)
        (0.99890121 0.00009989 0.00009989 0.00009989 0.00009989 
        0.00009989 0.00009989 0.00009989 0.00009989 0.00009989 
        0.00009989 0.00009989)
        (0.99890121 0.00009989 0.00009989 0.00009989 0.00009989 
        0.00009989 0.00009989 0.00009989 0.00009989 0.00009989 
        0.00009989 0.00009989)
        (0.99890121 0.00009989 0.00009989 0.00009989 0.00009989 
        0.00009989 0.00009989 0.00009989 0.00009989 0.00009989 
        0.00009989 0.00009989)
        (0.99890121 0.00009989 0.00009989 0.00009989 0.00009989 
        0.00009989 0.00009989 0.00009989 0.00009989 0.00009989 
        0.00009989 0.00009989)))
        (((0.99890121 0.00009989 0.00009989 0.00009989 0.00009989 
        0.00009989 0.00009989 0.00009989 0.00009989 0.00009989 
        0.00009989 0.00009989)
        (0.99890121 0.00009989 0.00009989 0.00009989 0.00009989 
        0.00009989 0.00009989 0.00009989 0.00009989 0.00009989 
        0.00009989 0.00009989)
        (0.99890121 0.00009989 0.00009989 0.00009989 0.00009989 
        0.00009989 0.00009989 0.00009989 0.00009989 0.00009989 
        0.00009989 0.00009989)
        (0.00009989 0.00009989 0.00009989 0.99890121 0.00009989 
        0.00009989 0.00009989 0.00009989 0.00009989 0.00009989 
        0.00009989 0.00009989)
        (0.99890121 0.00009989 0.00009989 0.00009989 0.00009989 
        0.00009989 0.00009989 0.00009989 0.00009989 0.00009989 
        0.00009989 0.00009989))
        ((0.99890121 0.00009989 0.00009989 0.00009989 0.00009989 
        0.00009989 0.00009989 0.00009989 0.00009989 0.00009989 
        0.00009989 0.00009989)
        (0.99890121 0.00009989 0.00009989 0.00009989 0.00009989 
        0.00009989 0.00009989 0.00009989 0.00009989 0.00009989 
        0.00009989 0.00009989)
        (0.99890121 0.00009989 0.00009989 0.00009989 0.00009989 
        0.00009989 0.00009989 0.00009989 0.00009989 0.00009989 
        0.00009989 0.00009989)
        (0.99890121 0.00009989 0.00009989 0.00009989 0.00009989 
        0.00009989 0.00009989 0.00009989 0.00009989 0.00009989 
        0.00009989 0.00009989)
        (0.99890121 0.00009989 0.00009989 0.00009989 0.00009989 
        0.00009989 0.00009989 0.00009989 0.00009989 0.00009989 
        0.00009989 0.00009989))));
}

potential (SHU |)
{
    data = (0.68700000 0.05700000 0.25600000);
}

potential (Kunsat | SHU)
{
    data = ((0.46404640 0.52295230 0.01300130)
        (0.00061019 0.07983321 0.91955660)
        (0.97670233 0.02319768 0.00009999));
}

potential (IR | Rainfall Kunsat)
{
    data = (((0.35300000 0.34330000 0.30370000 0.00000000 0.00000000)
        (0.25240000 0.32920000 0.41840000 0.00000000 0.00000000)
        (0.25070000 0.32230000 0.42700000 0.00000000 0.00000000))
        ((0.13030000 0.13560000 0.47270000 0.26140000 0.00000000)
        (0.00000000 0.00000000 0.42460000 0.57540000 0.00000000)
        (0.00000000 0.00000000 0.43300000 0.56700000 0.00000000))
        ((0.13260000 0.13230000 0.26740000 0.30780000 0.15990000)
        (0.00000000 0.00000000 0.00000000 0.27560051 0.72439949)
        (0.00000000 0.00000000 0.00000000 0.29709412 0.70290588)));
}

potential (OC | SHU)
{
    data = ((0.99980004 0.00009998 0.00009998)
        (0.13198633 0.60856454 0.25944914)
        (0.15031503 0.71187119 0.13781378));
}

potential (Koc | Pesticide)
{
    data = ((0.00009996 0.00009996 0.00009996 0.99960016 0.00009996)
        (0.00009996 0.00009996 0.99960016 0.00009996 0.00009996)
        (0.00009996 0.00009996 0.00009996 0.00009996 0.99960016)
        (0.00009996 0.00009996 0.00009996 0.99960016 0.00009996)
        (0.00009996 0.00009996 0.99960016 0.00009996 0.00009996));
}

potential (HalfLife | Pesticide)
{
    data = ((0.79469400 0.20510501 0.00010049 0.00010049)
        (0.83999195 0.15980678 0.00010063 0.00010063)
        (0.00379962 0.48915108 0.50694931 0.00009999)
        (0.99970000 0.00010000 0.00010000 0.00010000)
        (0.00009998 0.04049190 0.95930814 0.00009998));
}

potential (RF | OC Koc)
{
    data = (((1.00000000 0.00000000 0.00000000)
        (1.00000000 0.00000000 0.00000000)
        (1.00000000 0.00000000 0.00000000)
        (0.30740000 0.63640000 0.05620000)
        (0.03230000 0.14920000 0.81850000))
        ((1.00000000 0.00000000 0.00000000)
        (1.00000000 0.00000000 0.00000000)
        (0.67140000 0.32860000 0.00000000)
        (0.00010000 0.42010000 0.57980000)
        (0.00000000 0.00000000 1.00000000))
        ((1.00000000 0.00000000 0.00000000)
        (1.00000000 0.00000000 0.00000000)
        (0.29700000 0.70300000 0.00000000)
        (0.00000000 0.17790000 0.82210000)
        (0.00000000 0.00000000 1.00000000)));
}

potential (AF_A | RF HalfLife IR Depth)
{
    data = (((((0.53330000 0.07720000 0.10090000 0.11320000 0.12040000 
        0.05500000)
        (0.84270000 0.05020000 0.04370000 0.03950000 0.02270000 
        0.00120000)
        (0.92630000 0.02550000 0.02360000 0.01780000 0.00680000 
        0.00000000))
        ((0.09170000 0.05060000 0.09410000 0.17100000 0.30110000 
        0.29150000)
        (0.40260000 0.11340000 0.13590000 0.14930000 0.14250000 
        0.05630000)
        (0.63810000 0.09430000 0.09230000 0.08640000 0.07710000 
        0.01180000))
        ((0.01270000 0.01590000 0.03190000 0.08550000 0.26540000 
        0.58860000)
        (0.13040000 0.06850000 0.12000000 0.20630000 0.28800000 
        0.18680000)
        (0.27010000 0.11090000 0.15810000 0.18900000 0.18420000 
        0.08770000))
        ((0.00030000 0.00180000 0.00840000 0.03230000 0.15760000 
        0.79960000)
        (0.03160000 0.02970000 0.06840000 0.13560000 0.34370000 
        0.39100000)
        (0.09350000 0.05780000 0.10430000 0.21890000 0.31490000 
        0.21060000))
        ((0.00000000 0.00000000 0.00090000 0.01170000 0.07950000 
        0.90790000)
        (0.00450000 0.01040000 0.03270000 0.08770000 0.28640000 
        0.57830000)
        (0.03320000 0.03320000 0.06750000 0.13630000 0.37520000 
        0.35460000)))
        (((0.15800000 0.04200000 0.06520000 0.12240000 0.25240000 
        0.36000000)
        (0.38430000 0.08130000 0.11420000 0.15620000 0.17210000 
        0.09190000)
        (0.54330000 0.09510000 0.11060000 0.11370000 0.10490000 
        0.03240000))
        ((0.00000000 0.00000000 0.00030000 0.00940000 0.12150000 
        0.86880000)
        (0.00570000 0.01380000 0.03990000 0.13270000 0.36440000 
        0.44350000)
        (0.03400000 0.04850000 0.10760000 0.22110000 0.34960000 
        0.23920000))
        ((0.00000000 0.00000000 0.00000000 0.00000000 0.01080000 
        0.98920000)
        (0.00000000 0.00000000 0.00080000 0.01590000 0.16570000 
        0.81760000)
        (0.00000000 0.00130000 0.01160000 0.06590000 0.33330000 
        0.58790000))
        ((0.00000000 0.00000000 0.00000000 0.00000000 0.00000000 
        1.00000000)
        (0.00000000 0.00000000 0.00000000 0.00000000 0.03170000 
        0.96830000)
        (0.00000000 0.00000000 0.00000000 0.00330000 0.12790000 
        0.86880000))
        ((0.00000000 0.00000000 0.00000000 0.00000000 0.00000000 
        1.00000000)
        (0.00000000 0.00000000 0.00000000 0.00000000 0.00270000 
        0.99730000)
        (0.00000000 0.00000000 0.00000000 0.00000000 0.02890000 
        0.97110000)))
        (((0.04610000 0.01350000 0.02020000 0.03910000 0.10910000 
        0.77200000)
        (0.11230000 0.02800000 0.04620000 0.08710000 0.23770000 
        0.48870000)
        (0.16320000 0.03990000 0.06890000 0.12590000 0.26930000 
        0.33280000))
        ((0.00000000 0.00000000 0.00000000 0.00000000 0.00020000 
        0.99980000)
        (0.00000000 0.00000000 0.00000000 0.00010000 0.03680000 
        0.96310000)
        (0.00000000 0.00000000 0.00000000 0.00710000 0.12550000 
        0.86740000))
        ((0.00000000 0.00000000 0.00000000 0.00000000 0.00000000 
        1.00000000)
        (0.00000000 0.00000000 0.00000000 0.00000000 0.00030000 
        0.99970000)
        (0.00000000 0.00000000 0.00000000 0.00000000 0.00650000 
        0.99350000))
        ((0.00000000 0.00000000 0.00000000 0.00000000 0.00000000 
        1.00000000)
        (0.00000000 0.00000000 0.00000000 0.00000000 0.00000000 
        1.00000000)
        (0.00000000 0.00000000 0.00000000 0.00000000 0.00000000 
        1.00000000))
        ((0.00000000 0.00000000 0.00000000 0.00000000 0.00000000 
        1.00000000)
        (0.00000000 0.00000000 0.00000000 0.00000000 0.00000000 
        1.00000000)
        (0.00000000 0.00000000 0.00000000 0.00000000 0.00000000 
        1.00000000)))
        (((0.02340000 0.00610000 0.00840000 0.02320000 0.05360000 
        0.88530000)
        (0.04770000 0.01340000 0.02300000 0.03860000 0.12960000 
        0.74770000)
        (0.07620000 0.02060000 0.03270000 0.06420000 0.20230000 
        0.60400000))
        ((0.00000000 0.00000000 0.00000000 0.00000000 0.00000000 
        1.00000000)
        (0.00000000 0.00000000 0.00000000 0.00000000 0.00000000 
        1.00000000)
        (0.00000000 0.00000000 0.00000000 0.00000000 0.00000000 
        1.00000000))
        ((0.00000000 0.00000000 0.00000000 0.00000000 0.00000000 
        1.00000000)
        (0.00000000 0.00000000 0.00000000 0.00000000 0.00000000 
        1.00000000)
        (0.00000000 0.00000000 0.00000000 0.00000000 0.00000000 
        1.00000000))
        ((0.00000000 0.00000000 0.00000000 0.00000000 0.00000000 
        1.00000000)
        (0.00000000 0.00000000 0.00000000 0.00000000 0.00000000 
        1.00000000)
        (0.00000000 0.00000000 0.00000000 0.00000000 0.00000000 
        1.00000000))
        ((0.00000000 0.00000000 0.00000000 0.00000000 0.00000000 
        1.00000000)
        (0.00000000 0.00000000 0.00000000 0.00000000 0.00000000 
        1.00000000)
        (0.00000000 0.00000000 0.00000000 0.00000000 0.00000000 
        1.00000000))))
        ((((0.97640000 0.01350000 0.00650000 0.00290000 0.00070000 
        0.00000000)
        (1.00000000 0.00000000 0.00000000 0.00000000 0.00000000 
        0.00000000)
        (1.00000000 0.00000000 0.00000000 0.00000000 0.00000000 
        0.00000000))
        ((0.78520000 0.07460000 0.06630000 0.04930000 0.02330000 
        0.00130000)
        (0.98880000 0.00750000 0.00330000 0.00040000 0.00000000 
        0.00000000)
        (1.00000000 0.00000000 0.00000000 0.00000000 0.00000000 
        0.00000000))
        ((0.46700000 0.11550000 0.13250000 0.15130000 0.11200000 
        0.02170000)
        (0.88730000 0.05030000 0.03970000 0.01990000 0.00280000 
        0.00000000)
        (0.96970000 0.02040000 0.00910000 0.00080000 0.00000000 
        0.00000000))
        ((0.22730000 0.09370000 0.14790000 0.18960000 0.24470000 
        0.09680000)
        (0.67810000 0.10540000 0.09970000 0.08170000 0.03500000 
        0.00010000)
        (0.87270000 0.05790000 0.04380000 0.02470000 0.00090000 
        0.00000000))
        ((0.10330000 0.06800000 0.11040000 0.20080000 0.31500000 
        0.20250000)
        (0.47170000 0.12950000 0.14830000 0.14540000 0.09750000 
        0.00760000)
        (0.71860000 0.09500000 0.08970000 0.07360000 0.02310000 
        0.00000000)))
        (((0.69160000 0.08150000 0.08250000 0.08140000 0.05580000 
        0.00720000)
        (0.95710000 0.02340000 0.01330000 0.00570000 0.00050000 
        0.00000000)
        (0.99420000 0.00480000 0.00100000 0.00000000 0.00000000 
        0.00000000))
        ((0.14750000 0.09920000 0.14340000 0.22130000 0.27670000 
        0.11190000)
        (0.62200000 0.12030000 0.11920000 0.09410000 0.04350000 
        0.00090000)
        (0.83710000 0.07030000 0.05870000 0.03120000 0.00270000 
        0.00000000))
        ((0.01380000 0.02030000 0.05710000 0.14620000 0.37520000 
        0.38740000)
        (0.21940000 0.11860000 0.17900000 0.22510000 0.21640000 
        0.04150000)
        (0.45460000 0.14980000 0.16100000 0.14510000 0.08660000 
        0.00290000))
        ((0.00000000 0.00080000 0.00950000 0.05190000 0.26280000 
        0.67500000)
        (0.04000000 0.05260000 0.10970000 0.24670000 0.38190000 
        0.16910000)
        (0.14350000 0.10880000 0.18820000 0.26690000 0.24390000 
        0.04870000))
        ((0.00000000 0.00000000 0.00020000 0.00910000 0.13970000 
        0.85100000)
        (0.00210000 0.01530000 0.04360000 0.14470000 0.44040000 
        0.35390000)
        (0.03370000 0.05360000 0.11670000 0.26870000 0.38430000 
        0.14300000)))
        (((0.25100000 0.05810000 0.08960000 0.15530000 0.25540000 
        0.19060000)
        (0.55130000 0.09540000 0.12160000 0.11840000 0.09710000 
        0.01620000)
        (0.73130000 0.08410000 0.07990000 0.06930000 0.03480000 
        0.00060000))
        ((0.00020000 0.00160000 0.01030000 0.04760000 0.24340000 
        0.69690000)
        (0.04120000 0.04660000 0.09880000 0.21440000 0.38430000 
        0.21470000)
        (0.14390000 0.09890000 0.17220000 0.25560000 0.26230000 
        0.06710000))
        ((0.00000000 0.00000000 0.00000000 0.00190000 0.05440000 
        0.94370000)
        (0.00030000 0.00270000 0.01360000 0.07230000 0.31740000 
        0.59370000)
        (0.00670000 0.01760000 0.05270000 0.16070000 0.43050000 
        0.33180000))
        ((0.00000000 0.00000000 0.00000000 0.00000000 0.00350000 
        0.99650000)
        (0.00000000 0.00000000 0.00000000 0.00610000 0.13450000 
        0.85940000)
        (0.00000000 0.00000000 0.00240000 0.04660000 0.28360000 
        0.66740000))
        ((0.00000000 0.00000000 0.00000000 0.00000000 0.00000000 
        1.00000000)
        (0.00000000 0.00000000 0.00000000 0.00000000 0.03900000 
        0.96100000)
        (0.00000000 0.00000000 0.00000000 0.00280000 0.14020000 
        0.85700000)))
        (((0.11720000 0.02560000 0.05110000 0.09820000 0.26880000 
        0.43910000)
        (0.27360000 0.07100000 0.11210000 0.20250000 0.25080000 
        0.09000000)
        (0.42260000 0.10410000 0.15720000 0.16200000 0.13710000 
        0.01700000))
        ((0.00000000 0.00000000 0.00000000 0.00000000 0.02730000 
        0.97270000)
        (0.00000000 0.00000000 0.00080000 0.04020000 0.38660000 
        0.57240000)
        (0.00000000 0.00060000 0.02370000 0.18970000 0.49630000 
        0.28970000))
        ((0.00000000 0.00000000 0.00000000 0.00000000 0.00000000 
        1.00000000)
        (0.00000000 0.00000000 0.00000000 0.00000000 0.04000000 
        0.96000000)
        (0.00000000 0.00000000 0.00000000 0.00040000 0.21430000 
        0.78530000))
        ((0.00000000 0.00000000 0.00000000 0.00000000 0.00000000 
        1.00000000)
        (0.00000000 0.00000000 0.00000000 0.00000000 0.00000000 
        1.00000000)
        (0.00000000 0.00000000 0.00000000 0.00000000 0.00030000 
        0.99970000))
        ((0.00000000 0.00000000 0.00000000 0.00000000 0.00000000 
        1.00000000)
        (0.00000000 0.00000000 0.00000000 0.00000000 0.00000000 
        1.00000000)
        (0.00000000 0.00000000 0.00000000 0.00000000 0.00000000 
        1.00000000))))
        ((((1.00000000 0.00000000 0.00000000 0.00000000 0.00000000 
        0.00000000)
        (1.00000000 0.00000000 0.00000000 0.00000000 0.00000000 
        0.00000000)
        (1.00000000 0.00000000 0.00000000 0.00000000 0.00000000 
        0.00000000))
        ((1.00000000 0.00000000 0.00000000 0.00000000 0.00000000 
        0.00000000)
        (1.00000000 0.00000000 0.00000000 0.00000000 0.00000000 
        0.00000000)
        (1.00000000 0.00000000 0.00000000 0.00000000 0.00000000 
        0.00000000))
        ((0.99850000 0.00110000 0.00030000 0.00010000 0.00000000 
        0.00000000)
        (1.00000000 0.00000000 0.00000000 0.00000000 0.00000000 
        0.00000000)
        (1.00000000 0.00000000 0.00000000 0.00000000 0.00000000 
        0.00000000))
        ((0.99580000 0.00220000 0.00120000 0.00080000 0.00000000 
        0.00000000)
        (1.00000000 0.00000000 0.00000000 0.00000000 0.00000000 
        0.00000000)
        (1.00000000 0.00000000 0.00000000 0.00000000 0.00000000 
        0.00000000))
        ((0.99300000 0.00310000 0.00230000 0.00130000 0.00030000 
        0.00000000)
        (1.00000000 0.00000000 0.00000000 0.00000000 0.00000000 
        0.00000000)
        (1.00000000 0.00000000 0.00000000 0.00000000 0.00000000 
        0.00000000)))
        (((0.99980000 0.00010000 0.00010000 0.00000000 0.00000000 
        0.00000000)
        (1.00000000 0.00000000 0.00000000 0.00000000 0.00000000 
        0.00000000)
        (1.00000000 0.00000000 0.00000000 0.00000000 0.00000000 
        0.00000000))
        ((0.99530000 0.00170000 0.00160000 0.00120000 0.00020000 
        0.00000000)
        (0.99990000 0.00010000 0.00000000 0.00000000 0.00000000 
        0.00000000)
        (1.00000000 0.00000000 0.00000000 0.00000000 0.00000000 
        0.00000000))
        ((0.98280000 0.00400000 0.00520000 0.00470000 0.00300000 
        0.00030000)
        (0.99790000 0.00150000 0.00060000 0.00000000 0.00000000 
        0.00000000)
        (1.00000000 0.00000000 0.00000000 0.00000000 0.00000000 
        0.00000000))
        ((0.96600000 0.00870000 0.00830000 0.00790000 0.00750000 
        0.00160000)
        (0.99450000 0.00270000 0.00150000 0.00110000 0.00020000 
        0.00000000)
        (0.99830000 0.00130000 0.00040000 0.00000000 0.00000000 
        0.00000000))
        ((0.94500000 0.01230000 0.01280000 0.01330000 0.01080000 
        0.00580000)
        (0.98470000 0.00520000 0.00400000 0.00470000 0.00140000 
        0.00000000)
        (0.99370000 0.00210000 0.00220000 0.00180000 0.00020000 
        0.00000000)))
        (((0.99260000 0.00240000 0.00230000 0.00180000 0.00080000 
        0.00010000)
        (0.99930000 0.00060000 0.00010000 0.00000000 0.00000000 
        0.00000000)
        (1.00000000 0.00000000 0.00000000 0.00000000 0.00000000 
        0.00000000))
        ((0.96020000 0.00960000 0.00950000 0.01160000 0.00700000 
        0.00210000)
        (0.99300000 0.00270000 0.00260000 0.00150000 0.00020000 
        0.00000000)
        (0.99750000 0.00110000 0.00120000 0.00020000 0.00000000 
        0.00000000))
        ((0.91440000 0.01980000 0.01930000 0.01710000 0.01810000 
        0.01130000)
        (0.96930000 0.00770000 0.00800000 0.00870000 0.00580000 
        0.00050000)
        (0.98640000 0.00500000 0.00460000 0.00310000 0.00090000 
        0.00000000))
        ((0.85130000 0.03260000 0.03040000 0.03230000 0.03160000 
        0.02180000)
        (0.94850000 0.01160000 0.01330000 0.01200000 0.01230000 
        0.00230000)
        (0.97210000 0.00600000 0.00880000 0.00700000 0.00560000 
        0.00050000))
        ((0.77960000 0.04520000 0.04610000 0.04480000 0.04670000 
        0.03760000)
        (0.91970000 0.01880000 0.01760000 0.01760000 0.01910000 
        0.00720000)
        (0.95470000 0.01160000 0.01100000 0.00980000 0.01020000 
        0.00270000)))
        (((0.97760000 0.00580000 0.00700000 0.00520000 0.00410000 
        0.00030000)
        (0.99470000 0.00230000 0.00210000 0.00080000 0.00010000 
        0.00000000)
        (0.99940000 0.00050000 0.00010000 0.00000000 0.00000000 
        0.00000000))
        ((0.92210000 0.02020000 0.01610000 0.01680000 0.01700000 
        0.00780000)
        (0.97440000 0.00810000 0.00710000 0.00660000 0.00380000 
        0.00000000)
        (0.98810000 0.00530000 0.00380000 0.00270000 0.00010000 
        0.00000000))
        ((0.83350000 0.03400000 0.03470000 0.03630000 0.03500000 
        0.02650000)
        (0.94610000 0.01160000 0.01220000 0.01170000 0.01490000 
        0.00350000)
        (0.96430000 0.00790000 0.01060000 0.00890000 0.00800000 
        0.00030000))
        ((0.70810000 0.06030000 0.06000000 0.06530000 0.05940000 
        0.04690000)
        (0.90130000 0.02150000 0.02140000 0.02320000 0.02010000 
        0.01250000)
        (0.93790000 0.01210000 0.01530000 0.01490000 0.01590000 
        0.00390000))
        ((0.58740000 0.08280000 0.08200000 0.08150000 0.08600000 
        0.08030000)
        (0.85110000 0.03230000 0.03080000 0.02930000 0.03350000 
        0.02300000)
        (0.90600000 0.02040000 0.02140000 0.02290000 0.02010000 
        0.00920000)))));
}

potential (Leach | AR AF_A)
{
    data = (((1.00000000 0.00000000 0.00000000)
        (1.00000000 0.00000000 0.00000000)
        (1.00000000 0.00000000 0.00000000)
        (1.00000000 0.00000000 0.00000000)
        (1.00000000 0.00000000 0.00000000)
        (1.00000000 0.00000000 0.00000000))
        ((1.00000000 0.00000000 0.00000000)
        (1.00000000 0.00000000 0.00000000)
        (0.25230000 0.74770000 0.00000000)
        (0.02400000 0.23110000 0.74490000)
        (0.00400000 0.02200000 0.97400000)
        (0.00010000 0.00180000 0.99810000))
        ((1.00000000 0.00000000 0.00000000)
        (0.65800000 0.34200000 0.00000000)
        (0.00000000 0.65240000 0.34760000)
        (0.00000000 0.00000000 1.00000000)
        (0.00000000 0.00000000 1.00000000)
        (0.00000000 0.00000000 1.00000000))
        ((1.00000000 0.00000000 0.00000000)
        (0.34350000 0.65650000 0.00000000)
        (0.00000000 0.33860000 0.66140000)
        (0.00000000 0.00000000 1.00000000)
        (0.00000000 0.00000000 1.00000000)
        (0.00000000 0.00000000 1.00000000))
        ((1.00000000 0.00000000 0.00000000)
        (0.16740000 0.83260000 0.00000000)
        (0.00000000 0.17620000 0.82380000)
        (0.00000000 0.00000000 1.00000000)
        (0.00000000 0.00000000 1.00000000)
        (0.00000000 0.00000000 1.00000000))
        ((1.00000000 0.00000000 0.00000000)
        (0.06550000 0.93450000 0.00000000)
        (0.00000000 0.06240000 0.93760000)
        (0.00000000 0.00000000 1.00000000)
        (0.00000000 0.00000000 1.00000000)
        (0.00000000 0.00000000 1.00000000))
        ((1.00000000 0.00000000 0.00000000)
        (0.01200000 0.98800000 0.00000000)
        (0.00000000 0.01190000 0.98810000)
        (0.00000000 0.00000000 1.00000000)
        (0.00000000 0.00000000 1.00000000)
        (0.00000000 0.00000000 1.00000000))
        ((0.91150000 0.08850000 0.00000000)
        (0.00000000 0.90390000 0.09610000)
        (0.00000000 0.00000000 1.00000000)
        (0.00000000 0.00000000 1.00000000)
        (0.00000000 0.00000000 1.00000000)
        (0.00000000 0.00000000 1.00000000))
        ((0.63960000 0.36040000 0.00000000)
        (0.00000000 0.59600000 0.40400000)
        (0.00000000 0.00000000 1.00000000)
        (0.00000000 0.00000000 1.00000000)
        (0.00000000 0.00000000 1.00000000)
        (0.00000000 0.00000000 1.00000000))
        ((0.44800000 0.55200000 0.00000000)
        (0.00000000 0.39010000 0.60990000)
        (0.00000000 0.00000000 1.00000000)
        (0.00000000 0.00000000 1.00000000)
        (0.00000000 0.00000000 1.00000000)
        (0.00000000 0.00000000 1.00000000))
        ((0.36750000 0.63250000 0.00000000)
        (0.00000000 0.29280000 0.70720000)
        (0.00000000 0.00000000 1.00000000)
        (0.00000000 0.00000000 1.00000000)
        (0.00000000 0.00000000 1.00000000)
        (0.00000000 0.00000000 1.00000000))
        ((0.28240000 0.71760000 0.00000000)
        (0.00000000 0.19920000 0.80080000)
        (0.00000000 0.00000000 1.00000000)
        (0.00000000 0.00000000 1.00000000)
        (0.00000000 0.00000000 1.00000000)
        (0.00000000 0.00000000 1.00000000)));
}
